-6.826614883827169, 0.0, 0.0, -4.6097488916097917E-7, -5.4557469021293735E-6, 1.2548923416224185E-4, 9.08104348516399E-4, 4.7453987522723664E-5, -4.7477562839314544E-4, -9.276886065272919E-4, -0.0017833794854468894, -3.5677887883930973E-4, 3.7098433395729247E-4, 6.178934663662619E-4, 0.006798362065290778, 0.005965947604426545, -7.288652657534134E-6, 1.6218343715285905E-5, 3.894497053435696E-7, -4.2160279626876773E-7, 0.0, -1.1956022537836532E-7, -1.165314427314903E-5, -2.147510388857026E-5, 0.0016572413395192084, 0.0025439015335098334, -0.009111144339563646, 0.003851102004627896, 0.00655542016248638, 0.002073138064898295, 0.015808381187474164, 0.016194828938320034, 0.01866951942321837, 0.012835734489173405, -0.05006007086097215, -0.06441300158122272, -0.010816158944622727, 0.008178288729972295, 0.007432520599510816, -3.034319931310277E-4, 6.465771478100231E-6, 1.024111630179413E-6, 5.858399526539253E-5, 8.535044521060871E-5, -0.007267110324922591, -0.02763450338177528, -0.06443746994276386, -0.116403028800269, -0.19337567085004811, -0.28418155407510826, -0.31758860707463876, -0.47939608785203053, -0.6262843685187995, -0.4835571143534404, -0.7860163761550477, -0.432791392148722, 0.16240588881960943, -0.03397296460519201, -0.10144064820151719, 0.012543602938163756, 0.0026103528451099276, 4.418412067786553E-6, 7.287309255412639E-4, 0.0027330113444568706, -0.10109125635943224, -0.2361771709112552, -0.3395653663635331, -0.626276902315151, -0.5175790409900752, -0.2826837811899846, 0.13054646821110857, 0.49906898067094296, -0.17979901577121626, -0.1108928392976423, -0.47777010345938464, -0.22776726495486319, 0.7927021065845924, 0.33670556974047544, -0.030533602581706166, -0.07155535887429881, -0.022763085119556204, -1.4155107097543776E-5, 0.0019340303523837877, 9.114294447724845E-4, -0.22651583981755238, -0.49097742650977055, -0.2635814785121068, -0.446139004056755, -0.3259181657892357, 0.7612365367491156, 1.2113546732342044, 1.7993765714262595, 0.4093005694731213, 0.6152752199131943, 0.8076587771601379, -0.35655435182641143, 0.8837276738488689, 1.1821594441316834, 0.11379236541207303, -0.2236225275986353, -0.06594067314110028, -2.1176181082160217E-4, 0.00383571432311865, -0.03257967440897919, -0.3591877306481007, -0.7189184939823139, -0.30359107976883043, -1.228690831041457, -0.45984578625483574, 0.43977616741618175, 0.19290741753795015, 1.0660732855789776, 1.9536818929966575, 0.41708383856702197, 1.5748197891211262, 0.22837049226371256, -0.5711138655559486, -1.6656419479594473, -0.7428349573888382, -0.3490743668727541, -0.04618727250269644, 0.003390591525022718, -0.02966010360089901, -0.35854400030855865, -0.8623696757997389, -1.0287575808351639, -0.18726383809845512, -1.2229272000142557, 0.2723879639487641, -0.31609297608451864, -0.06992922013777529, 0.0337127832540868, 1.043795448297195, 0.36442392131854756, -0.03841681384061997, 0.009012564717383603, -0.07403009601524485, 0.15733253390504576, -1.1436050939260667, -0.7701592011116112, -0.02288983636088152, 0.004664746983140589, -0.039910225531274525, -1.0317297073517548, -1.084346148926953, 0.1927632297500189, 0.9276163064315601, -0.3986686833611699, 0.21249927316398876, 0.3911998219447523, 0.7407256607691526, 1.257982490533524, -0.16144926226048045, 1.104834594252036, -0.3615901806413029, 2.240414888501383, 0.9375255080794136, 2.146834115885477, -0.11960206746090922, -1.6281574480529155, -0.2443551239251694, 0.0028355971560011317, -0.04838898512211236, -1.562546338823825, -0.32250586961585964, -0.1845238580566967, -0.2890009303392713, -0.8351671515503553, -0.10732886932812331, 0.5102137350265868, -0.6735713137338628, 1.318044095834062, 1.1927714294875462, 1.4185032962631017, 1.010856676922664, 1.8807362359110724, 0.28899209814021504, 1.4667527196161643, 0.2957467309089673, -1.1026219121943346, -0.38409533421074543, 0.0012845062096253476, -0.14329516661857758, -0.878982457336831, 0.5974975550550928, 0.253225766046345, 0.8924176144123592, 0.5976358968392442, 0.2918028273132818, -0.672972591700441, -1.338382479991031, 0.8855551641129168, -2.2996304840025585, -2.7767631080818553, -2.078310098072537, 0.06464328921029805, -0.917872994697501, 1.5592900599546333, -0.16772650967462155, -0.5025220981679182, -0.30797691771153485, -0.009085583176541163, -0.1726134920704717, 0.19916286630275415, 0.5946686300257905, -0.3730703663952677, 0.549831452250009, 0.8152427016158826, 0.020663557950744656, -0.9113185261905367, -2.374326021234836, -3.909072880762911, -4.537057107051429, -1.457863709914372, -1.246976989664049, -1.9660343672586462, 0.516706996987651, 0.6828394567032291, -0.5254620239038819, -1.2641882215717177, -0.11950207885433434, -0.031185815629047948, -0.542986891467974, -0.9544204599628036, 0.21643346553736353, 0.6784478175558084, 0.233485978714785, -0.30979047095801004, -0.6548656547221904, -0.9176916544079853, -2.3227875881963054, -2.2650381681132448, -0.03499531817536142, -0.5925420132437127, -0.16902150217394152, -0.9341532494143285, 0.2028973304237108, -0.7635604203177991, -0.7037147484994581, -1.014560954995774, 0.01976604941056173, 0.05894097551624317, -0.9129684040393069, -0.5340175530268798, 0.14593467871516533, -0.2722944460940599, 1.446383827615779, -0.029409190882300727, 1.0473501259739204, 0.805353671537585, 0.04500960178760112, 0.3243028529043385, -0.9692590490544482, -0.11711581741121158, -0.39807959669842224, -0.8494773362746246, -2.0878258731154293, -0.39852862278685924, -0.29774070244346446, -0.3821355506899052, -0.020055771602409192, 0.03689322719557353, -0.42436057950520634, -0.15895063722593783, 0.4174806742568981, -0.4087509317935028, 1.0215879426966206, 1.1183533476918142, 1.4324385937812454, 0.8368226936595802, -1.1792341438482072, -0.9591122251901003, -0.41118712231281257, 0.27969328060734333, -0.003036022323626906, -0.721124303993812, -1.547819055336694, 0.2974363237266779, -0.45572053170632143, -0.35139780212821975, 0.010713388998653801, 8.915528911406996E-4, -0.07087674396949012, -0.40254969071161034, -0.12729932885097484, 1.2551433573160566, 0.4819314335175273, -1.3203846811643842, 0.3291619570581581, 1.2310230099499475, -0.3631770980005663, -0.2031526378367072, 0.6256392243027725, -0.6108546434173093, 0.081019980412205, -1.3258290055988515, -0.25604017654527556, 0.1746311930940368, -1.2508971445971269, -0.4588287995190353, -0.017078108265786405, 0.0020532788823093423, -0.025866953143834293, -0.7857170816669912, -0.6990415479888835, 0.795339878902318, -0.8564802277174066, -0.11475125442939568, 1.3642101438998246, 0.8338552454200587, -0.5002664796559014, 0.07626541639910071, -0.6662382597005775, 0.48341511807756715, 0.9810576045169607, -0.5375483914971143, 0.5668076425769367, -0.3419961791789516, -0.8133125936560845, -0.49223268595907793, -0.21654084706417806, 5.069374040976289E-4, -0.004446734323715354, -0.15754397340471293, -0.031074667618849496, -0.14869959101252908, -0.6488564124201779, -0.2075413383840157, 0.940741272902623, 0.6504275457978201, 0.6480580225347536, 1.7038424859990444, 0.6283555705071115, -0.07166656500442194, -1.5621416447725787, -1.2908648465900503, -0.972337192712753, -0.6667232041976803, -0.16858132286923522, -0.27095111132351396, -0.1289398513482315, -5.0482101437992794E-5, -0.009864088041688276, 0.08035487203117321, 0.4531608268969224, -0.8731760362690676, -1.0849105494182345, -0.048076506584339276, 0.08012904115479187, -0.05508218746333005, 0.4853747699292403, 0.9227436391597355, 0.5994023631148434, -0.6994123947518852, -1.0939879454485617, -1.1732120596116546, -0.9051020955814895, -0.4553538566613225, 6.499842509916408E-4, -0.02010541593467015, -8.778097116881382E-4, -5.238534771338222E-7, 4.8751054533403647E-4, 0.003635172497159332, -0.027770836512760622, -0.8730358836039581, -0.9306438257875111, -0.38550049033338873, -0.13628321397469706, -0.07001858233904844, -0.18030156208943876, -0.16077693246526473, -0.33771023682074297, -0.47304528169250365, -0.11862503524999495, 0.02550530285173429, 0.03477492700110906, 0.01727996026740833, 0.0014083367835830665, 0.0037291346031137216, 0.0013073276778475481, 0.0, -2.5282417732929956E-5, -1.925221964965398E-4, 0.01559759921429176, -0.1931988554062623, -0.017707316704976914, -0.06213317540413408, -0.0016496321204077318, 0.009448204794799561, 0.016090817608690945, 0.0102683105775175, 0.026071113211867083, 0.041162024515510945, 0.01344420936479832, 0.0022920961941046447, 0.0039185591426761195, 6.12751246490362E-4, -2.328843677669939E-4, 1.2075982414060857E-5, 0.0
-3.3803550355566623, 0.0, 0.0, 9.504052929999127E-5, -8.783229442668291E-4, -9.569187301628472E-4, 0.0015737619132871591, -0.019109352218703076, -0.0015157422109452721, 6.182323220396081E-4, 4.7736966031681664E-4, 6.594874188720868E-5, 4.4956218211411847E-4, 0.002011773406441793, 0.0016809822860765905, 0.004460634902376926, 0.005871661548355121, 4.945541848777735E-4, -8.387990117097022E-5, -8.398751596751683E-8, 0.0, -1.516984772707764E-8, 9.831537215265684E-6, -0.0012031162987113024, 0.01000828805313868, 0.011466454518708619, 0.0021559185092429162, -0.025537650378855574, -7.044458323639423E-5, 0.0012880024132018038, -0.009397132515403018, -0.00115027363091179, -0.005057366746228589, -0.02206435903573768, -0.012648314186908085, -0.04002317090484134, -0.054894412616925, 0.006873969470355153, 0.010517649361490217, 3.185677482569366E-4, 1.7624701484676098E-4, 1.2270450529969462E-7, -3.0900622826244195E-4, 3.203500129582633E-4, 0.029177213345337107, 0.0723921242964168, 0.10801939366564264, 0.1065547774564076, -0.05935344929268877, -0.0917475540328969, -0.02271843700088562, -0.0410628187123344, -0.005759460572610274, -0.06837295935051364, -0.18554553300733556, -0.29633947689534434, -0.22604254977663585, -0.0443047539606972, 0.05610467715962852, 8.033469733413157E-4, -3.688880595361249E-4, 6.18536901655182E-7, 0.0015232774523666007, 0.005082485255942346, -0.18624672031021816, -0.6739159560193395, -1.0304028900325475, -1.3887841761133612, -0.8194673417003431, -0.9177690566128841, -0.08908514973755627, 0.3725043571476453, -0.1190337903842382, 0.008012525693612793, -0.5586140835403909, -0.7644068247226651, -1.1674340257140776, -1.608853279603301, -1.5425694050027383, -0.03265294165853127, -0.018175813685124033, 1.3686183828663354E-6, 0.007597521817361949, -0.055152858901867205, -0.19578997961983155, -0.5362495388034563, -3.2754679172498533, -2.4728374562014355, 0.012211824245007951, 1.5142346141906953, 2.260306923076295, -0.010669425438634712, -0.5514001456981609, 0.17682976003053383, -1.0429823131191076, -1.1494080930199013, 1.9730076587551255, 0.14193632911160006, -1.426331199678123, -0.2501970299569138, -0.04065201346989465, -1.587920465158596E-5, -0.01694602267698339, -0.14296557651643604, 1.700713202548651, 0.0746901516259429, -0.834712216509813, -1.5738900675403613, -0.9446591798974168, 2.507557060120474, 1.6533576826414083, -2.294507300920266, -1.3952915567459074, -0.08605407851301763, -1.6250427550938433, -1.7556942816668846, 4.23520430933878, 0.964312133003545, -3.485798333665526, -0.7133565545416176, -0.04768859745863537, -1.660689861126314E-4, 0.015294962769455285, -0.8784631449613794, -0.37031819732844024, -0.6207181671179484, -1.482710129675309, -0.61191931931536, -1.1152757741501602, -0.7076220653552308, -1.2751537349164388, -1.0350560082566969, -0.6996591961919241, -0.15506300727728634, -0.8878380829375074, -1.9308496912056217, -2.0386400623387737, 0.0026558864847598656, -1.9101090745223954, -1.1873735396356502, -0.03041700582997733, -9.123444699028621E-4, 0.051760860055993264, -1.716540332822011, -2.9225966522830804, -0.8683915027788309, -1.1050718599232607, 0.1061669969901432, -0.8605723002305469, 0.8756790119905111, -2.325367383024024, -2.375397621893055, -1.2796716836977242, -2.5107264592563854, 1.6441733916709986, 2.4502737773299548, -0.9282473515143073, 0.05027587753989662, 0.10097473641866056, -2.6993729489463165, 0.004172803677862914, 0.022327079760491496, -0.2762552463795569, -1.348028831040258, -0.5388524505932509, -1.9812765983703338, -1.4511280642265263, 0.1677689333, 0.0743016738669743, -0.3911883227837145, -2.244269416936438, -0.4261018839294726, 0.7722418726395239, -0.8133225249927807, -2.1299351069006973, 0.5735040740863118, -0.07712346014767503, -1.0152373894968345, -1.6809621420069065, -3.164123119663922, -0.47277238683184075, 0.04630109954476861, -0.5257518066851156, -0.24624034218276364, -0.786237966329826, -0.9329141793533342, -0.4183587397803587, -0.2465162345762548, 0.21668977492412278, 0.4957899627480059, 0.45561703501300216, 1.0827318315471506, 0.6613585950025909, 1.035239052901694, 0.7424213488095694, 0.20128214918884232, -1.506641968423648, -0.2058380593590566, -0.24363182719020432, -2.332940437264952, -0.13292993967055852, 0.0305255156778284, -0.29197539888918383, 0.8220939459835167, -1.5825043867413333, -2.6284556846587446, 0.39555637789012643, -0.48312007366314974, 0.5392658606335304, 3.0533968405207226, 3.053119568059064, 2.1937850273006054, 2.5439255619863155, -0.1452633249949387, 1.397569401123987, -0.13614498644114828, 0.13674805978164656, -0.3230827789846393, -1.628687632214932, -1.7904346038778454, 0.055458981280928105, 0.008831429414907116, -0.17077273836441897, 0.5382023256159617, 2.3450606149322626, 0.7239618044995356, -0.5163143953176883, -1.0323195370800156, 2.0130309903120973, 1.3904908765495771, 0.49053822601902136, -1.1564110104046437, 0.1962249121134906, -1.998244524067738, -1.210960296006814, 0.7137492643369653, 0.9415002034424064, 0.8732267715033051, -2.9829777845734466, -1.998225717982294, -0.05131826152986818, 0.023261513873825447, -0.1951518882830588, -2.522446556840026, -3.0791726438248865, -1.621326885308809, -2.1546746173780855, -0.4312256381905663, 0.08056423255162759, 0.14297097719924917, 0.1010579198643827, 0.9627608165733127, 1.3213934907664235, -0.9186299346426833, -0.7930939595429832, -1.3532676285178977, -1.3790333711804323, 2.388020404313295, 0.7848188736641813, -0.9713037494647778, -0.12477229019143317, 0.018358420446900236, -0.2556568060334059, -0.9304887600945991, 1.7068391529122762, 0.6876141232172212, 2.015461316053033, -0.9673242677534442, -1.3144764800628825, 1.4754921007442263, -1.4554123696067673, -1.3255725923607162, -2.6684588831396607, -1.4438354383804515, 1.378421730675099, 1.788414940761865, -0.9020505752851503, 1.3092955938592448, 0.33186132926492284, -0.8452746906188353, -0.041581417796168564, 0.002581587804192115, -0.01610214470710359, -0.5676879387710289, -0.6802608066607537, -0.2843437566202128, -0.6422651488977911, -1.0707164408552323, -0.6952562862271783, -2.4807120536961724, -2.2283858188835284, -1.1214901430226494, -2.0898035016713723, -1.4803067556375709, 2.022076348300783, -0.9497429093055029, -0.25163293659563163, 2.3878379204078706, -1.3576100162670743, -0.7517490461456191, -0.045051250984562606, -1.7484278024198165E-4, 0.019847801833657298, -0.1792862000812393, -1.364488166837859, -1.2850053284233345, 1.113311604786153, -0.27673103233838797, -1.5394438913264386, -1.2906478677188102, -0.9677067554196573, -1.3815071430489647, -1.799782880939766, -1.6898510792702846, -1.528462252075152, -0.6844381886041294, 0.5947653856353954, 0.1003561353786412, -1.5615132191331995, -0.01710040782393183, -0.008993647405865232, -1.2256492172374854E-5, -0.012645564238781125, 0.08788098470872718, 0.7162527619760555, -1.1325320607529692, -1.0627082788032705, -1.2401111001941412, -1.0071420631103452, -0.47014315284685987, -0.31996011949839354, -0.17971110464783951, -0.3272334396844579, -0.9357229023649486, 0.32567307614741703, 0.8686066773120034, 0.13483103143266578, -0.6731820468839004, -0.48392078233315167, -0.011658723964320732, -0.0075946746093524834, 8.839893359223528E-6, -0.006313636687315026, 0.04303487775648233, 0.3895845111404512, -1.0663395123110893, -1.473400171848062, -0.7260192226329307, 0.034632806455004723, 6.374610784876316E-4, -0.2781234927592279, -0.03715589247965591, -0.11662465170434216, -0.33459524444105504, 0.5875106188495778, 2.647819394602292, 2.919575851560207, 0.6821225487806002, -0.2474045023502842, -0.013535667131782645, 1.8130212322315967E-4, -3.0931478594763415E-7, 7.881015699705736E-4, 0.0030074553705541135, -0.10031099830097907, -0.4013281877510607, -0.1397248191063674, -0.16504590482937564, 0.716149358971468, 0.5444735458146314, -0.1380253467045236, 0.28143436673252314, 0.03898687847446767, -0.10543469092149416, 0.001636340754727821, 0.5678282288942531, 1.8714145195969523, 0.4918649933600384, -0.04977889754525151, 7.749055086023832E-4, 9.934181675468858E-5, 0.0, -4.4669292783682006E-5, 0.0011115198241340779, -0.006201858779161768, 0.011860155723003257, -0.0042308057856736535, 0.006603277368083639, -0.06766869225266756, -0.059882564034386326, 0.004687436145950297, 0.0501356311005186, 0.0015804951834275322, 0.07093989285412357, 0.35788865955310795, -0.015814280724375435, -0.17084503056580128, -0.04269346326456118, 0.005288380017346794, 1.342237274028416E-7, 0.0
-3.227168596689832, 0.0, 0.0, -2.7433285975924517E-5, 3.763789457691554E-4, -8.625118315245479E-4, -0.01551933742823326, -0.008695744667378488, -0.012481367583159634, -0.0015076412328519629, -0.008087986942136745, -0.0030482497415752715, 0.003823835626804195, 0.005193090855837312, 0.0023689267726944275, -0.004132215217950764, -0.001972911374176649, 0.0036309061734534566, -1.1034404626459441E-4, -2.0396972844588954E-5, 0.0, -1.5418382322679502E-6, -6.435759208289248E-6, 5.864692502618748E-4, -0.0039591636124500585, 0.012438459304950602, 0.14406193880748835, -0.08195453454537839, -0.16919260665452063, -0.02963919524850046, -0.03179078152358932, -0.027641139883724433, -0.06185799400472199, -0.06010885372314893, -0.026063940375638008, 0.02861931194810255, 0.019655245062727172, -0.04463811331359029, 0.0056726700106820415, 0.0010840791209220755, 8.507345578726816E-5, 3.6005081887939707E-6, 2.7608061683966013E-4, 0.0031287425915339753, -0.01876674352899098, -0.3199862744602046, -0.24909486015198262, -0.36502957706635797, -0.4227243729022777, -0.25349786269849295, 0.06517480980078313, 0.41613122233486427, 0.6014671941870704, -0.043259295046628905, -0.9552452920193772, -0.4047264065302607, 0.12760254236774313, -0.3287186221322222, -0.07447480785190742, 0.03407948517463438, -0.002828033104152713, 1.475783308665958E-4, -5.8655200002576526E-5, -0.04396301198835003, 0.0753315714895893, 0.1144732513351345, 0.23569483991171414, 0.470145767106591, 0.5302753490594347, 0.08351385208664296, -1.3370695236786938, -0.2962774684901753, 1.0797542266879907, 0.21792608777505088, -0.09348080788606605, 0.4864972824053764, -0.16351346752026402, -0.2603550086201543, -0.6680923501751802, -0.3173960436349318, 0.016376261558506373, 0.001766641738970021, -0.006243405176680662, -0.10999285181905417, 0.4274351830730182, -0.22758167858025352, -0.5946272208759397, 0.08281096304195033, -0.3629723052811298, -1.9058480523284786, -2.3281053007188124, -0.2602321957728023, 0.639542125064812, 1.0038351708093103, 0.3057566718348802, -0.06726089081858874, 0.3049516993541479, 0.6924109026123055, -0.8039352811029619, -0.9645161656057274, 0.00904995907988394, -0.013061258215172957, -0.12600749201327638, 0.06537316917959422, 0.7907894917455365, 0.31407590730126816, 0.41150531853804706, 0.4528708831762057, -0.1957213613023533, -2.6722976121350253, -1.9954920237292646, 1.3873134142946473, 0.9262589610061918, -0.1383363152412537, 1.2511951833737767, 0.06640514163472185, 0.2320592483063749, 1.382042732216032, -0.07176245622988316, -1.2276455382741986, -0.04081332733700126, -0.07015541534730287, -0.37630486562032783, 0.3196691051305498, 0.9299848214590989, 0.05365520273464583, -0.16621377649386856, 0.7820298765025432, 0.2806557937604689, -2.45089278811441, -1.5230474933986176, 0.5581607666076497, 0.4117614636106177, -0.5704380485002868, 0.8185076297327563, 0.6681368018670073, -0.08010079106836457, -1.0262521811552312, -0.7630655802633624, -1.1053383333210693, -0.08205402781767837, -0.04726939407423143, -0.32312449084901523, 0.9455126285241224, -0.010579089593740036, -0.35130642005914625, 0.3907354220487014, 0.36671687067381786, -0.19242273257637327, -1.817398670746449, -0.6462418474271517, -0.9369884964950269, 0.6729379672194192, -0.015003738712847802, 0.10960558973805094, 0.44996100269011613, 0.844829921433493, -0.8625719900601084, -0.9616693284149591, -1.029104464103476, -0.14159050969598072, -0.031166286508646883, 0.24932199786396747, 0.9429710339923052, -0.36563045771768854, 0.49167791042721165, 0.48985815771051855, -0.5764016721568594, 0.37726346756372753, -1.128282157986079, -0.6110362648138727, 0.4114073404943324, 1.0075956812627382, 0.6818638328160336, 0.8707580456089378, 0.5886851916734366, 0.6304621830020573, -0.22550489056631945, -0.855151303291363, -0.7928314553774867, -0.09430587441922672, -0.046809255302598884, 0.3092580373382048, 0.435980805894484, 0.7478091101675625, 0.1648251022901089, -0.7457349713642929, 0.38067793498639824, -0.6282486471512967, -1.7404164850824309, -0.5964634556038649, -0.2389724460103139, 0.13067140224640883, 0.14030581618173293, 0.851563350785641, 0.25008450159450346, 0.17964629882413155, -0.10164267097161458, -0.40572060373360935, -0.7427920442067604, -0.07304309995219777, 0.08690454620080557, -1.0591896499996292, -0.4678334914754798, 0.8626305739102883, 0.448819717473763, -0.2959649358179447, 0.4408524638760232, -0.5445989633048778, -0.6482960889550621, -1.5173383935461167, -0.45504470119426976, 0.468286261958088, 0.25541006143520595, 0.492715070455164, 0.3413467280005692, -1.0352410883068637, -0.2307092466474697, -0.21761545861059461, -0.9098998370520969, -0.05361917655635491, 0.2566550233642706, -0.8000949220265494, -0.8796750322308253, 0.17939992384640988, 0.5304841671169586, -0.09618183919495675, -0.8310022706532009, -0.03638675349860053, 0.33416720195608995, -0.38292191381283885, -0.4745323423588058, 0.3089448632296813, 0.39294213697050334, 0.06269964287763231, 0.4056842681637339, -0.7405009019038938, -0.4903095777846236, -0.7723854144892669, -1.1097033966324157, -0.10432139490768122, 0.07574662197446709, -0.6315619553888973, -1.257236259523414, 0.5034645619574128, 0.41495898707432144, -1.0791036132995373, 0.7024538051196434, -0.03565631006738225, -0.9632883541587215, 0.20924485228757816, 0.28135639455793826, -0.9370332304211496, 0.4947095947265414, 0.47742038888797705, -0.3433179830960417, 0.38488072793428024, 0.7408629079797412, 0.2304824669583668, -0.4863477925338253, -0.06732796278180884, 0.05629702852233904, -0.8593302703438699, -1.283177893566061, -0.5863005189895296, 0.5889561409614265, -0.5934247832608835, 0.975277486808467, -0.40272395732829974, -1.2510133959148926, -0.46200078569421515, -0.7087046009296623, 0.3597345356913291, -0.01537691859443107, -0.27810161990962845, 0.10523442812715057, 0.4939400277550462, -0.3816098902215914, 0.7948097231532867, -0.09596136307737069, -0.07717301927236196, 0.03274121919323256, -0.4339516631444364, -0.08969917019352519, -0.7620461540157043, -0.07132264578809296, -0.24105759137360847, 0.09768677746297887, 0.7948588925256317, 0.3623334991367715, 0.13323033408341298, -0.2944279353476603, 0.5691900399216621, -0.5407044358978942, -0.4835501854649479, 0.8317280588519408, 0.632968095088536, -0.8560160123452991, 0.7496080167486958, -0.3297470772129595, -0.02607132622795259, 0.0024402103134812314, -0.1073447827771223, -0.2641688740675152, -1.008055401497501, -0.43010179809291815, 0.7230944880595962, -0.31731886638980294, 0.144677929949995, -0.22534807402648507, -0.4298788086069682, -0.8662457788600125, -0.1783226547545761, 0.7083182142165083, 0.3400816778493408, 0.21759881437931095, 0.8163986127660795, 0.35164119320013254, 0.2513199415264938, -0.2750760061408845, 0.006594685686045203, -0.0018658104907952433, 0.013461171419498465, -0.15544305080798088, -0.9469835387510678, -0.9482310852234446, -0.537276854534983, -0.4775685766192503, -0.39297591239707225, -1.1666285365294469, -0.33039593122379973, -1.251488258065425, -1.2355817557421096, 1.255790336258681, 0.2829125880340885, -0.033703600190332764, 0.9153507069830802, 0.659202692584977, 0.06222081960433891, -0.13292571976808032, 0.006339112353119326, -5.310943852272755E-4, 0.011046671795031132, -0.020918479447710435, 0.0029917959266248153, -0.5209488911223676, -1.333360045164341, -1.249160552780009, 0.32027712686301163, 0.5937257682072168, 0.5073967570229685, -0.7244405868351413, -0.0013407157751858783, 0.9575486322412318, 0.2538442501955759, 0.2839148938136021, 0.3470128580770743, 0.07802634964823402, -0.08453061981102863, -0.020422444212267937, 0.0017060127386270534, 2.5962419866150412E-5, -6.713263725262472E-4, -0.004335088926239244, 0.09216696413983673, -0.02268509124141471, -0.43548706014800814, -0.4790642706396911, -0.03439795995928237, 0.6840047185214306, 0.4787036312890441, 0.2809631336880813, 1.6550475939693126, 1.1781384825399916, 0.5668482303373458, 0.23935461445755413, 0.06221762222400745, 0.028501294387593565, 0.007810228906906591, 0.0011708945632704704, -1.0808737704042453E-4, 0.0, 1.5235037158512916E-5, 7.048876381617151E-4, -0.0073968731928952675, -0.02514793379921363, 0.005912303735736233, 0.020487800290736456, -0.012330742408383357, 0.022615685515026563, 0.0785051554809907, 0.16405415567164294, 0.3652630031421307, 0.29026995757065444, -0.01539508413460178, 0.02860169770996186, 0.007990351970353745, 0.014045338039556923, 0.003892394856040047, -4.4155859359138296E-4, 0.0
-4.621598123545027, 0.0, 0.0, -6.625088547822517E-6, -8.476742522282606E-5, 0.0025327802350802527, 0.010378530178849668, -0.01516425620346403, -0.005693952179141812, -0.0013639373915096552, -0.008877303128174537, -0.0027255013779572458, -0.0028350590435959533, -0.010650031828032883, 0.012510528771902736, 0.02122073282301903, -0.0018724271240750114, -6.124350010536933E-4, -1.1545427131069851E-5, 6.142078376796413E-6, 0.0, -5.5598897424133515E-8, 3.666943210078991E-6, 3.390270766967451E-4, -0.0029221646697922665, -0.009938617529529533, -0.036227349258884475, -0.08628163075902275, -0.06294252139784726, -0.05345966245598978, -0.055486770169531754, -0.032154939850048254, 0.03893163858073606, 0.1036809260738264, -0.17397368602746438, -0.25823081224850614, 0.011144104099132428, -0.010402775697439817, -0.025817283101003174, -0.0037432264142405387, 4.7168379976540514E-4, 4.644469155045203E-7, -9.890874643669306E-5, -0.005366401575616544, 0.047886784177306366, 0.2947140468070236, 0.630265712079353, 0.550510575514008, 0.24459767691894851, -0.08556003476970617, -0.06387535241904814, -0.11463363832142684, -0.14445944764921106, 0.32681484035510827, 0.62536787382405, 0.33983796864982674, 0.22928399174013178, 0.31936702466982825, 0.4982954059600706, 0.024772236664202488, -0.0037279548272333655, 1.8012486834505064E-6, 6.146647653498593E-4, -0.021564088687241353, 0.09502177991825718, 0.49459748379560853, 0.3739053091752183, 0.33461767033693746, -0.09123528544524269, -0.5509813479606834, -0.45793885017542507, -0.46171147228642, -0.21641628580380196, 0.7219517064348728, 1.4020967404221567, 1.330260021289002, 0.28487255509936826, 0.635131835566051, 1.0952243261728154, 0.16757224852708483, -0.022735248329155272, 1.883565254675799E-6, -0.0028297991356872245, -0.01921892677439463, 0.2794073007636863, 0.6021563926152498, 0.06993801356590407, 0.477414382091324, 0.46546516835900287, -0.9471726532765252, -1.0327923917855089, -0.9216859411922406, -0.8992874799409869, -0.24504397524910537, -0.026751971290888108, 0.9658704896649293, 0.07184186279996815, 0.3165266797291147, 1.028618226503037, 0.1114253289041859, -0.044934989192556424, 3.161596776051039E-5, -0.00881240376612814, -0.04560290853336122, 0.44762408021500993, 0.3992053709329576, -0.21458675796017207, -0.08772190441028133, -0.1965521445959809, -1.0840543921238748, -0.4877212200521933, -0.8872675991105808, -1.3637518078353252, -0.4880235715969856, -0.2038092262510227, 0.3853437439789715, -0.51644560400318, 0.039518283212134686, 1.6373046447747628, 0.1675220647416801, -0.0881528235791993, 7.807432304154974E-5, -0.0065539639375386686, -0.09765052623366578, -0.22515172742548464, -0.07555279730569853, -0.20089690659385095, -0.521191700821862, -0.7354612648835218, -0.808164880284509, -0.39102358458385755, 0.40523104731172943, -0.7621869141772798, -0.6542522934219968, -0.30819029779207685, 0.2208624763348502, 0.11033432247476015, 0.10903444870992934, 0.5045484946594004, 0.14487136998223737, -0.10343168850383655, 1.710986137521874E-4, -0.006296775539368062, -0.022404441609530458, -0.07456150733151412, 0.7893871751334528, -0.0791280980479153, -0.3230723964819807, -1.2279732915265527, -0.6233012188682912, -0.48125449722451674, 0.07809950307693438, -0.3147756008959539, -1.8599616060769177, -1.0990516395180887, -0.6366530869145258, -0.21974472147708943, 0.41223680680567926, -0.06798467331608564, 0.259273878803608, -0.08695691304484289, 0.001016444132573984, -0.011247836369317133, 0.08747971628386779, -8.758084693837151E-4, 0.4799540087481108, -0.1962264508373157, -0.48566008540171524, -1.350615926153852, 0.11893066172869794, 0.0874761280711902, 0.2780490438870494, 0.3224193534469881, -1.423852668865032, -0.5900830990260428, -0.49359094319027896, -0.21820591327471123, 0.20063632915242052, 0.11769245568057563, 0.10544549391870636, -0.19475064744255197, 0.0019455119892294304, -0.04066650941707562, 0.4517923328379178, 0.3829508590656789, 0.19654768491941396, 0.3110297059200491, 0.42136032506861293, -0.6838263390201686, 0.5315322696028897, 0.4239323436951743, 0.22742314314811404, 0.27054301847194584, -1.2352213006655977, -0.6894801124932926, 0.011067937422536376, -0.11495547903849669, -0.08918527000199818, 0.5158446758807328, 0.1862063030586664, -0.3407205059532685, 0.0017977691807316606, -0.036452334508927875, 0.09243737760223983, -0.1782908275514935, -0.35702196219445403, 0.541919563308317, -0.417228093085909, 0.25044934046065953, 1.0133306960130701, 0.21457374687652356, 0.021538133655904252, -0.2178136771466319, -1.4906114237109471, -0.9535960069912381, 0.06826140023334219, 0.03130644544312168, 0.10939095940987546, 0.014306329804588777, -0.5644452214957808, -0.31753766106335246, 0.002588349292004096, -0.06006586076782336, 0.3012870312385939, 0.5311653775195014, 0.27188750771886483, -0.12515317574421775, 0.7291601449732654, 1.240562141167117, -0.1139067559517381, 0.7288883469847235, 0.1907392292136651, 0.05402010029916855, 0.5217176888697789, 0.5133151077011401, 0.20979474352904365, 0.30808168282283477, 0.15679689227061325, -0.34845151117345324, -0.8489524441580931, -0.2234994408792701, 0.003201822697766021, -0.04851015451417894, 0.7383762792019979, -0.18223379387682254, -0.1931889410263711, 0.4323116385717195, 0.06046772087946539, 0.3085013402982441, 0.6237459193597154, 0.8636431031602604, -0.5042045164483113, -0.29759508247728816, 0.24060565436073728, -9.087035802893906E-4, -0.2254984048055231, 0.5226858784450994, 0.15760049874871448, -0.5543688458274124, -0.6668423218186558, -0.09862181885012658, 0.0018992120881905648, -0.031395115945633455, 0.5240864380557098, -0.08842356716426078, -0.24400709697614145, 0.6268537526350155, -0.3291924262704497, 0.22678161118114787, 0.7347528935306585, -0.4568690380505428, -0.37178831461727974, 0.1848410095581401, 1.309680230749261, 0.3991471199458511, -0.08332399314388836, 0.1259625115934721, 0.15810167638261544, 0.09685270240690586, 0.08008276785488884, 0.03882774462420502, -1.850251010764703E-4, -0.005097136945139247, 0.14329433074755324, -0.8726530058270823, -0.4016989095584013, 0.3980552160772584, 0.5720826054734214, 0.4024887948037814, -0.12402658829383648, -0.46070495868072747, 0.02563138688992009, -0.06760874567157373, 0.17145448386424222, -0.0888662633564149, 0.2938808043693199, 0.5253686501522887, 0.2910360131887684, -0.2818450419333267, 0.1537803698555988, 0.12202731249883325, -2.092005544454671E-4, 0.011111927299785138, -0.08661720711839788, -0.8401108220332585, -0.765193547628081, -0.6914379404724816, 0.500930462906791, 0.39607347222175243, -0.6567338962906187, -0.8532298211328743, -0.18515882049401725, 0.2976431028688313, 0.8102636465585176, 0.48464843614080977, 0.6902435902579577, 0.6243258612516317, -0.2216836126374427, -0.049005011242952146, 0.1719055735986698, 0.008974537859269402, 1.167340335114474E-5, 0.007284723244626477, -0.07404344287277569, -0.37033779629775604, -0.4827029884120319, -0.5332767573753326, -0.37790683881243503, 0.005518462477772157, -0.3240077626995206, -0.6696788164288769, -0.05478770939412278, 0.5474266258769501, 0.16386391691480573, -0.7753965319931738, -0.7256201007134301, -0.30449485823261857, -0.2186276692543884, 0.01450923593849462, 0.06781318708586649, -0.010236707963793794, 1.4908921844618715E-5, 8.257646672721272E-4, 3.6654499765507303E-5, -0.07966848903871424, -0.5878467126301282, -1.1787230884502045, -1.0915747373433267, -0.3919727306606222, -0.13974460726647764, -0.16564308765495672, -0.03457835023959494, 0.17894261808172413, -0.26900044360482395, -0.5816151500531902, -0.4757930128141637, -0.36051224938267573, -0.042918428194863086, -0.04192320789192766, -0.008809378873000125, 7.381985381957257E-4, -5.362556939092256E-7, -2.8429870942300865E-5, 0.001368231806358617, -0.0012625135795344049, -0.0958935288734374, -0.3368899297996018, -0.26147930739466974, -0.07636244878300454, -0.014635278310818511, 0.008149611899698385, 0.006025407306585108, -0.02233030644659068, -0.05549316577093824, -0.027724972289646356, -0.06369980753891853, -0.02165096922271103, 0.001113626259314543, 0.002016415762227989, 7.399096380648883E-5, 1.8498100085005924E-5, 0.0, -4.372727054580694E-6, 2.1708055178361368E-5, -3.1124743434023336E-5, 0.004436110690714677, 0.024045058208249363, 0.014708271008777566, 0.004685511996570758, 0.0012787840508387753, -8.574620618204123E-4, 0.007097056454064972, 0.012153819191680163, 5.17082670281272E-4, -0.0067545665563305355, -0.002644230853771062, -0.002573862886925329, 3.8982911907069467E-4, -2.75257898683147E-5, 2.7095391583153006E-7, 0.0
-2.2647618129755505, 0.0, 0.0, -3.912389973057787E-6, -8.094305342226244E-6, 9.243002351943694E-4, -9.962192816664061E-4, 4.495808437427917E-4, 0.0358631649156262, 0.02657729908729787, 0.043574273071793033, 0.013071785832053769, -0.0017636979178118728, 0.0030556808503012546, 0.01926184168867408, 0.007611648317570071, -1.0901641497412367E-4, 1.1460121025950669E-4, 1.5830464473713596E-5, -2.6215418189579313E-6, 0.0, -1.470733345449455E-7, 6.302665586408452E-5, -5.442945631935733E-5, -0.00523050051046875, -0.027309808814188596, -0.005291486191570113, -0.0778552240589793, -0.4708545604194613, -0.18579135149369386, -0.05480499670992072, 0.030544602833305606, 0.03161474440773915, 0.019936158710591647, -0.1791194315321556, -0.07742758713976744, 0.005857325623905942, 5.908865224567221E-4, 7.985372982873129E-4, 3.3843745822832245E-4, 1.2449751539827308E-4, -8.727551881425809E-6, -7.847127814932255E-4, 0.006299346257149911, 0.05738914678269499, 0.14701374046526827, 0.010060174853739143, -0.13090313318501112, -1.1721136973229933, -1.1119808635536022, -0.2640221632716499, 0.18482298460906949, -0.5726617939811617, -1.0228212327516197, -0.8702365955997026, -0.2174567970608938, -0.0237858367377909, -0.022313875333377777, -0.017525400768946472, 0.003173918145544185, 1.7101586432168646E-4, 6.429534564727937E-5, 3.536327974393222E-5, -0.04061493990163209, 0.09935477848004447, 0.6600261697496581, 0.18613203318045307, 0.6092899807163032, -0.29032512683973954, -0.13828016715912386, 0.6483874932481442, 0.6722208202443235, -0.5484385373656442, -1.6385927827646032, -1.0182848013069263, -0.5824159001598772, -0.47684911370985406, -0.19319663127720857, -0.10360007328041158, -0.031867802803783, -0.011170191213179366, 7.350752018557768E-4, 0.003925002711508799, -0.1492530161095082, -0.47181041250371164, 0.010521231226858236, -0.32289529158300695, -0.05628515378335889, -0.7273005801268473, -0.8036268142333121, -0.07478415433428391, 1.362584073116777, -0.19160687713796018, -0.7763154190393267, 1.226728211368068, -0.1269342142341338, -1.6077542377241516, -0.7897685106982999, 0.2568057880219232, -0.5396647347613749, -0.12297168693452437, -1.4133714761498933E-4, -0.00886844576385844, -0.07533798711381912, -0.5186379560120081, -0.2223515142721906, -0.3252354406427061, 0.36585831422415455, -0.3402616620834017, 0.08826911478062191, 0.684754799678161, 0.8792331461680033, 0.5247889652816359, 1.1437376646815591, -1.1184897153122737, -0.9904146082250556, -1.4356821889399725, -0.26352273525522246, -0.4926303838400994, -1.2075810893561123, -0.27788327639329974, 5.606267966529068E-4, -0.03751099748008813, -0.30250285810117217, -0.26620417735840085, 0.3079167327294656, -0.027472820698350362, -1.0093703502754923, -0.6142008897328857, 0.6085976651449206, 1.0347808410884711, 0.2953339409322729, 0.7260928612048938, 1.5542525203639739, -0.8505759258930894, -0.835523544647434, -0.9029391832238783, 0.22236002401555202, 0.22453108153217738, -0.7104875075519955, -0.15836613314785516, -0.002907650143791505, -0.5231241984245655, -1.297182778184085, 0.02608842881238272, 0.06148303980503939, -0.18680975266740907, -0.07533014219849937, -0.14865427864807962, 0.22046811622988846, 1.397227304882934, -0.28788173216120716, 0.1497144260454419, -0.9073693003500235, -0.93123620722382, -0.926533849605292, -0.6071536821468148, -0.4744522905974518, -0.625380834668449, -1.5942111944523543, -0.12261719849266166, -0.04271436727560661, -0.6284811022811383, -1.1882898459247184, -0.38389794387680853, -0.515043317883246, -0.7739062852119231, -0.6555245636018593, -0.1882919893333185, 0.7209637340585326, 1.8681086360082468, 1.7912710033965618, 1.028705977083694, -0.5000762770661238, -0.3681149830367802, -0.6906949421418702, -1.514244851031747, -0.3505082942386912, -0.46675038979631933, -1.8692290811049932, -0.1443396483136559, -0.061607354016982356, -0.6783802551437583, -2.1851493396001254, -1.2640326882779593, -0.7265544553548082, -1.396740829921005, -0.5712014275654875, -0.6578713729574887, 0.015987220276562276, -0.2566695552857152, -0.07709451857762681, 0.012280058288130342, 1.0403477526339, 1.7052395293428064, -0.9687025478788127, -0.7109641833847987, -0.18409637546225732, -0.6506147511342467, -2.014046569285987, -0.33499871837084905, -0.051496578832954235, -1.1284441458496235, -2.485358641917716, -0.36618064744604933, -0.601956812888648, -1.6348798618862486, -1.325303211243964, -2.3465781014368656, -0.8843918903530255, -0.5606047152820228, -0.6853952121572684, 0.35255870183810284, 0.09082618539969985, 0.6851653037668197, 0.205209485577781, -0.4541191056774121, -0.35028872931221766, -0.03228917219240354, -0.9762019930630944, -0.6915543787204352, -0.19230172466275125, -0.8539477036819634, -1.7157513792200587, 0.36022532243112576, -0.1180525964704209, -1.9661249886129268, 0.6771655285166471, 0.039832739805913384, 1.1749711605265225, -0.0016745250090210578, 0.5783958292079835, 1.7422307994796309, 0.8855440061353, 0.7889788896177836, 0.6555636806637825, -1.1357388363707157, -0.17237872657297326, -0.8627815095917309, -1.172584600340558, -0.38113423640237837, -0.04178596287940912, -0.9846673066363458, -2.4642162658661073, 0.12364381787913835, -0.20211563569625374, -0.9312400540699423, -0.5937111284478647, -0.17358493651104287, 0.007649508267012229, 1.0554598371260688, 0.04402501646223645, 0.0579115747112519, 0.47586546203602487, -1.0784745438335066, -0.11114104074186795, 0.3957918363136598, 1.3233797181657936, -0.5781325584692623, -2.1214303519508424, -0.3160014917473133, 8.037235815785744E-4, -0.47821453155396476, -1.2481674591174328, -0.9365975449717533, -0.8543552172376104, 0.3438852360630291, -0.3717100549736021, -0.11989913636754945, -0.28949429608202243, 0.7632163559570238, 0.7913855322707237, 0.6946771626058545, 0.269475927602581, -0.38178709032224023, -0.9583399941533363, 0.11876834946891107, 0.6605344151885673, -1.103936993047399, -1.1568477174448935, -0.08038449733361216, 0.022007481495485676, -0.2987773221393238, -0.3215853188373016, 0.8849539837972976, 0.5228056585109668, -0.3400609676316155, -0.45322515508348554, -0.3990635038640959, -0.950248565625379, 0.7057962091893502, -0.03539893603651613, 0.10714128371353603, 0.27170621960289876, 0.4790059985145997, -0.25179464076360436, 0.2938297208592493, 0.0737916872817829, -1.1880364039479063, -0.7767143101428972, -0.08442032159536439, 0.020623271484102625, -0.283524697507722, -0.007216024678603567, 0.781049273248873, 0.4168841299043623, 0.966586317117454, -0.4235214894780669, 0.36674809587588375, 0.3293359465809695, 0.10576310324855802, 0.13129326504472788, -0.31259227640499043, -1.2027810123133602, -1.2856401512734004, -0.1647501254419604, 0.7048262124019389, 0.5209925050683499, -0.9060576187384497, -1.0595827896326162, -0.4278198733332903, 0.004478071893339616, -0.0625794654872217, 0.023338478214651348, 0.3425333653867494, 1.1779458297054803, 0.2815515820560525, -1.0069218039746184, 0.13158910025225384, -0.6894943001388741, -0.9167440238092173, 0.03319767975350741, 0.5980529872282109, 0.38302237181395915, -1.4823167121736767, -0.6005137368923302, 0.4652711148609725, 0.4394817893100583, -0.06519180096685001, 0.012888733324989524, -0.14478289962323015, -5.475815096930407E-4, 0.009353019255593622, -0.008272395074310993, -0.18681062179210403, -0.2964972151579012, -0.06727523547032323, -1.2017011282989138, -0.49559418060282295, -0.49655374540924774, -0.6426705058611499, -1.3818373638380566, -0.8729678368148859, -0.041121783343054226, -0.8282793686944019, -0.5136803392069129, -0.23166237345182672, 0.14932294080086703, 0.17072770221092182, 0.14000226395793974, -0.0017476482072165322, -1.2012660340860622E-6, 5.735511294811146E-4, -6.493181119895737E-4, -0.051094605486403065, -0.18595698830956117, 0.4677286018197293, 0.3117501034286826, 0.08902172794218996, -0.47947513901052496, -0.6034557421620637, -0.4200967683872904, -0.9750427724252609, -0.7372485432725194, -0.14456417829253373, -0.029209308884301784, 0.02258531837599654, 0.007297972650604648, -0.006703235648710621, -0.006568674231945718, 0.0011413055350700905, 0.0, -5.335950081211787E-5, 0.0013831786989059937, 0.0019537182885496565, -0.1551061244841325, -0.13141901592808547, -0.15603858584580726, -0.018733609196041758, -0.057755741266502604, -0.08460579527151418, -0.04653362211795808, -0.13597004131503546, -0.17381222894433823, -0.005967945973815338, 0.005201890466827413, -0.0024640790296884055, -0.0016227253618773842, 1.2803017641692543E-4, 4.016892938982958E-6, 0.0
0.6878607647443965, 0.0, 0.0, -9.212688494196729E-7, 8.739074043132785E-5, -9.456211907234581E-4, -0.008428777984325276, -0.0033861579930701963, -0.016600541647100817, -0.010142770469617302, -0.0015315004571047294, 1.171690833443198E-4, 0.0020192274035403038, 0.009520795682687492, -0.04365748419487209, -0.0690385795857308, 5.721792707646232E-5, 0.0010482718373858574, 4.4090812506975835E-6, -6.609846911888906E-6, 0.0, -2.8107722190644607E-7, -1.2927777765887293E-5, -7.192527847723037E-4, 0.007652106008120036, 0.022180538297678767, 0.027100917792692, -0.0011970649284594392, -0.07959003092414477, -0.05013312557052835, -0.026060850526669656, 0.005218290531593144, -0.016547092184083817, -0.10533742432731816, 0.47580511448576, 0.7611242288614561, -0.0030339528482998847, -0.012846279935019357, -0.004432091954683138, 2.420296038299012E-4, 1.8025616810441384E-5, 2.472085937323217E-6, -2.1432343220362762E-5, 0.010957049502827703, -0.08292825151249106, -0.37605244008110256, -0.7554597874106352, -0.9394792835815924, -0.2824682021855251, -0.12873767441329706, 0.014773558269466996, 0.004535605558478815, -0.09351215324777591, -0.23966813479826143, 0.9248005087628225, 1.4819617522561663, -0.3845280007189989, -0.23657552602230478, 0.009238870814567215, 0.0022706253920868106, 2.20285777133855E-4, 9.233691715464766E-6, 0.0013371671808183488, 0.03802156653146007, -0.4755696893149729, -1.2438766521320008, -1.608834451838874, -0.9749153530237856, -0.3150858374203528, -0.17685500774502505, -0.6146311941317492, -0.7492653523441496, -0.19927963202393287, 0.15642544608790027, 0.019086349275117376, 0.011749101585931197, 0.3010708993661336, -0.015721528274495543, 0.376118277702802, -0.015797285981849624, -0.005100371794014365, -1.0374427772589546E-5, 0.007123247586040742, 0.04279213320976343, -1.199343482586915, -2.2892435738234536, -1.140267474338133, -0.021393872228123056, 0.1018678658133942, 0.5581812992527512, 0.30773684636787735, -0.9477083752950969, -1.2840371452229626, 1.3554056407686825, 1.0613703628062756, -1.402565269306886, 0.38093901709530914, 0.36848385583171445, -0.13094867855292666, -0.11391664205881537, 0.003412430713453693, -1.2172759719319105E-4, 0.013813452074658852, -0.0716600141288398, -1.1200183061786297, -0.8817292121630556, -1.0608841741334187, -1.2884408268690712, -0.1378540343656655, 0.985610846442966, 1.2751384407100619, -0.9250565039870781, -2.887470518297935, 0.804595981156947, 1.39962173019916, 0.45335619731637, 0.42660480076254875, 0.700103896569371, -1.2583381909224312, -0.7484258224954771, -0.015401932784902424, 0.0026574225705988056, -0.017101660054487735, -0.29891651517689083, -0.6526906878623152, 1.1774663886543455, 0.8234901097500507, 0.7522987394002763, 0.4697716988863151, 0.01111658652575706, 0.17967565634616947, 0.23019091125571806, 0.18719019905078507, -2.71716763899468, -1.4139949980175366, 1.4196553746476919, 0.056614705090493316, -0.1000071309387044, 0.13176473719929915, -0.6726726668949233, -0.15209093765899337, 0.0028758843787365846, -0.037816271839457904, -0.568734900284281, -1.3018170725901397, -0.3001876092676902, -0.4920386341019721, -1.1190684617176394, 1.2338889228760954, 0.5264750865038067, 0.12231875974484772, 0.36720926735330345, 1.425533796634063, -1.1476750642657612, -0.48770404974016635, 1.1748454528549597, -0.19043078836754554, -0.163592035011923, 0.5895636485604371, -0.6652517378450737, -0.17086044314723667, 0.0037607539618818827, -0.12275290053015492, 0.0077764468034421715, -0.3475895806665094, 0.40417247136320905, 0.8049226807875743, 1.3420811860808963, 0.532560643766339, 0.2570606950892939, 1.1797534241853327, -0.07372536857617798, -0.1922112058616823, -0.7251340957880346, -0.08266821472091618, -0.4606417348087273, 1.0135571524809335, 0.8366829091908317, 0.46256310162589576, -0.5458774616854708, -0.17421986210154877, 0.02038975069796995, -0.3067087803302449, 0.21978075438219968, -0.6217257297715283, -0.7435085090985795, 0.3144838604755509, -1.502178104390709, 0.9052409180859037, 0.02658799333451608, 1.086254170823604, -0.29780261432104904, 0.06898002982071669, -2.03657973026717, 0.06455606876616225, -0.049075418972352285, 0.3535287019158093, -0.5711179884418869, -0.19121599110361745, 0.17429540535848845, -0.27762893494598456, 0.0368292585801002, -0.5780876874758606, -0.7853347658134103, -0.364633321766609, -0.1375157711689769, 0.15596500469752977, -0.454825568212488, 0.48220291983800306, -1.1730703055961753, -0.309876155878806, -0.9452472049781921, 0.4757717391316655, -1.2541690220010333, 0.9549866772871056, -1.1573896952605833, 0.43166424348247345, 0.3660406225132494, 0.757276353496117, -0.31659358668920673, -0.30301222280254325, 0.03904183727767889, -0.555119703287571, -1.4176814774678963, -0.7753573497337192, -0.4582148937642451, -0.6874011904737198, -0.6156151673452797, -1.607740704229987, 0.6219532059683877, -1.6776156919683973, -0.05516710369857096, -1.8619822817905147, 0.7296943069173695, -0.5065369318775219, -0.9602379194181632, 0.19607864602111394, -0.17286892079233623, 0.108208060371315, -0.4576764285452747, -0.2037656067896466, 0.04351925846889045, -0.49452333710428975, -1.85754961705587, 0.943641417239455, -0.4514821638255657, -0.5847819459704953, 0.5687902803216789, -2.447655660619097, -0.040989418245176594, -0.8681700063392045, 0.2224507927314801, -0.8057045911379306, 0.9197250168020179, -0.04368218230033909, 0.7345477569881614, -0.6341663262338131, 0.08216101497828612, -0.18245154781635256, -0.4207498681672914, -0.23690238387572965, 0.02414156046328268, -0.2730234606173954, -1.4653674540809676, -0.44472231244423543, 0.12576780176029692, -0.5853464885670769, 0.25100285058990185, -1.3314832048598324, -1.2927228039725527, -0.48082602411848485, -0.32283704738996855, 0.01819052886935512, -1.1202749954004436, 0.7598809249824476, -0.8596222955168277, 0.17662267978356416, 0.12362059816464616, -0.5743305692030524, -0.8874976621933801, -0.3262802798130182, 0.01989872542614996, -0.3258784843068446, -0.3932831304035399, -0.015281562589696889, 0.24079314789228995, 1.0502095742401474, -0.0969656214248714, -2.072011903828124, -2.527985332508327, 1.2501850679120468, -0.8767797484008337, 0.42613835116184307, 0.09198215366472956, 0.31582904405214085, 0.5910800483380672, 0.7141315075227668, -0.19522670387072857, -0.20962476659569407, -1.0658258068922388, -0.22917814178893514, 0.02838944983599522, -0.35796865024082575, -0.35684917702252167, 0.7079392474041978, 0.333555297657437, 0.4007454464768542, 1.1058547501947862, -0.7243789141509653, -3.4352688434007597, 0.7022974284348379, 0.03760909420757447, -0.33126755720091056, 0.4080477843070118, 0.019045598132805194, -0.6590935252505828, 0.2593747819464848, 0.5099187178130734, -0.5736556038693305, -1.1417567870865473, -0.7472001313863437, 0.005478985593180364, -0.053724135372731255, -0.1566842176139906, 0.2188880232549922, 0.2678731955601748, -0.008826673605949006, 0.20349906440331247, -0.7086690973599141, -4.913283184502986, -3.8376627103457617, -0.9884841339688707, -0.66165546892589, -0.1871697545697651, 0.42323023126312814, 1.3661692302812922, 1.8489609576022648, 0.8232183245845234, -0.11866228187759967, -0.14876049818747356, -0.1772277198762214, -6.852311167834333E-4, 5.771695653228826E-4, 0.2017874363439259, 0.4310797677590601, 0.8699283567719094, 1.7497336972065627, 3.9914713175179384, 2.210501100604012, -1.839685213038773, -2.3990051474956475, 0.26822898822290536, 1.5426184972303782, 1.4382642313186984, 0.9004617325199717, 0.8633174947402288, 0.7290566983108081, 0.11326185706638585, -0.06705238987508498, -9.417498037484408E-4, 0.0239166842744002, -1.72553940607465E-6, -0.00799567872502874, 0.007807114236698654, 0.7811430695493736, 1.23867835399727, 0.8405159428859015, 2.9460930126451625, 3.8083243725380584, 1.3035324472061656, -0.05450234362844525, -0.3081500224798853, -0.2601863808261162, -0.07483462362902293, -0.008919507872455625, -0.528550438247233, -0.33123037796986504, -0.04760923517098698, 0.00912437596000352, 0.0012563988335195498, -7.472623001425138E-5, 0.0, 6.819415519418607E-4, -0.009169023243619352, 0.005820461361812702, 0.06309013964459799, -0.23958645828956074, 0.06190381948844451, 0.24442468867325226, 0.15884317754578892, -0.010762563916357198, -0.019150966546780494, -0.12703575847082887, -0.1590270052297745, -0.031503150598562145, -0.08921985961949469, -0.014687707804508073, 0.0053172171091533035, -4.194008012136595E-4, -9.155724675405279E-7, 0.0
-3.8142037087845457, 0.0, 0.0, -1.571997666028728E-6, 2.711765213766498E-5, -1.7294479519908962E-4, -3.528404921339159E-4, -0.001893831228112861, -0.0013596201406384132, -3.337071300256657E-4, -7.5515103955924E-4, -2.3674244202022177E-4, 1.1334169690719716E-4, 1.1583047288871417E-4, 3.803861574980816E-4, 5.472859005412741E-4, 1.6040975840976986E-4, 3.272023046126044E-5, 7.681599289411958E-7, -4.302329366534069E-7, 0.0, 1.5085070056862927E-6, -1.851721272001636E-5, -2.144892965226477E-5, -2.9986371860552533E-4, 0.01001459974265544, 0.012766251415969102, 6.800752102771899E-4, 0.0041239312336646865, 0.01410683325976471, 0.011316142593993845, 0.014148136425515247, 0.003533079789672144, 0.01761271652119163, 0.008780879873089825, 0.001756656013765874, 0.001433500467619857, 5.918940343524305E-4, 1.618705540430226E-4, 3.469265741554707E-5, 1.4239244326603625E-5, -1.1206290618442005E-5, 1.5887460109475737E-4, -0.0011375297808409292, 0.016285903276228177, -0.08670531288087958, -0.4713057145028927, -0.2427791886233178, -0.4346066943820825, -0.7798515861201454, -0.6541845948209233, -0.34638211771365807, -0.14071432581708965, -0.20651849846221537, -0.15909007282697646, -0.10923838700627744, -0.0010306409849662017, -1.5529075685801047E-4, -0.0016296740727291378, -5.8969861227559975E-5, -1.1742871108700848E-4, -8.767478093483981E-5, 2.2922272688101519E-4, 0.0208112874685431, -0.10290644170251388, -0.8022066971665922, -0.5988504513861364, -0.172864629994211, -0.6109989845719005, -0.2720065615272599, 1.0551680814338318, 0.8392513255735464, 0.3943681167869916, -0.4544032408021785, -0.30225617168241203, -0.23264166287112298, -0.4728008181607357, -0.10364356029082647, 0.008850648011835579, -0.002432303176534346, -9.138467428656541E-4, -0.0038120086409120617, -0.021055832240466508, -0.13090308162321831, -0.12365498138547494, -0.23369644740508708, 0.0802482310182333, -0.10703126132370587, -0.08059717779464723, 1.1674435635363594, 0.7308694247369931, 1.1267659912031773, 0.7007342679729391, -0.3626701612095061, -1.0560396415140505, -0.5182467662875916, -1.4809735169827718, -1.000604280349762, -0.39643101900836236, -0.013527089388095168, -0.002937371209860989, 0.02706353899697223, 0.1733337179465293, 0.38188012203929544, 0.056118667695291904, -0.8541659523740659, -2.122495612482, -0.9308300106068937, -0.2001900226010828, -1.1313657374056976, -0.1594302151404357, 1.3980955052491446, -2.566770691912653, 0.6511715870897968, -0.6575148225053358, -2.135454932656719, 1.1772260195036996, -1.0425317132156549, -0.9760995434653754, -0.024066709278888217, -0.010066032567598677, 0.17394350094106603, 1.4416540677715306, 1.1348284102136479, -0.35671845776405336, -0.20738794340540798, -0.7270827538249135, -0.23690820388490308, 0.8698646226538337, 1.4931989181829723, 0.7379724657274699, 0.9201058799019239, 0.7801076460523614, 2.4069167501416207, 1.60922679814143, 0.18621455473560264, 2.200225623810707, -0.05928101111430309, -1.3176009078922328, -0.08628455633833326, -0.015159514235690992, 0.154376253368544, 1.0471254754580634, 0.12147098625885047, -0.29580819496285, -0.13827764703663822, -0.8072490682386321, -1.7744889387267169, -0.05970649176671296, -0.23698345915253483, 0.23895775937254052, 0.7681535970696949, -0.09739529184099141, 0.40512969969704016, 1.227438232736746, 0.5201622094557731, 0.8904898673971787, -0.16702671865676874, -2.0542322714363404, -0.09663709633504806, -0.019431896307735064, 0.023008599130757482, 0.08184253323882094, -0.7936799423465438, -2.002396645466103, -0.013760940191288502, -0.25886037141579327, -0.64920636246576, -1.1075190681277547, 0.15872187615177794, 0.5693800988207356, 0.4841488683259084, 0.7705170052355574, 2.254796494746147, 1.2694181339564679, 1.1545674442223255, 0.7383028077898051, -1.1128983260531806, -2.0574594943898057, -0.09924712599947633, -0.024297884551967616, 0.002940855868023186, 0.4885008473057473, 0.7273096064691807, -2.1664460518418354, -0.011075401344136414, -1.6779286967021225, -0.07960474097052954, -0.2609558874977519, 1.3668352265913617, -0.6094848974315763, -0.16120409350764947, -1.3776578128556085, -0.01484014789106332, 0.8650045962084877, 1.0931439053725809, 1.4665897691868797, 0.14942584378972096, -2.603177494521213, -0.3607746792569371, -0.013352485926971561, 0.017356038456707, 0.6965598129636645, 1.0493666326595814, -1.3328278914028007, -0.21977395587063858, -0.09277911283404633, -0.8896829145373983, -1.4402230385254107, -0.16524554976795047, -0.38115542228800364, 2.617842898437838, 0.2148447431316667, 0.15685334211707316, 0.7892731514836573, 0.4828914515408771, 0.25537968872428796, 0.32152385537841727, -3.061994474394304, -0.5873366976872508, -0.02496952700002436, -0.0053048362806062425, -0.16945231152512114, 0.36052068828416733, -1.088061613806518, -0.759445378545036, -0.7009499392982242, -0.761488204037134, -2.3426576099017797, -0.3951060576681962, -0.46189360997920254, -0.8833446796893144, -0.05750258276815055, -1.4279407476993438, 0.8595104986543413, 0.7803643662204803, 1.7422059356260082, 0.3098499562181017, -1.693162249605945, -0.2744129370540046, -0.022151263414783073, -0.052060248516813325, 0.38843680878092374, 0.55119566881235, -1.7304283988269114, -0.2739027527980746, -0.2831468405732603, -2.4842765299024707, -1.7198764783429406, 0.3641033664336855, 0.04230211380889461, -0.043014512964560804, 0.2871258764770657, -0.22982588366727164, 1.2095204921657836, -0.5292786348716491, 0.613022509537926, -1.427708936427997, -1.186845856985007, -0.16716539185867194, -0.009961533805517328, -0.08877434605008556, 1.3435496968393232, 1.340365257775723, -1.0041092527283375, 1.1277439545421795, -2.4306234833410287, -3.0591633659201083, -0.468529554338454, -0.9425865604177361, -0.9064067762826462, -0.6674941460346708, -0.15371513089237754, -0.06303656677125194, 0.3739297873722087, -0.17824589335648103, 2.3060224793226975, -0.26729141199442685, -1.0343286323692826, -0.18647506908635872, 0.002114785169363383, 0.04749538675770541, 0.854091771510849, 0.9618260403497089, 1.4468706196997767, -1.0658524122671966, -3.2506909792043794, 0.12539118084706416, 0.2187439325958926, -2.008623907907541, 0.4223654259625857, 1.2604713072019584, -1.4307859552719726, 1.650423361240444, -0.572585247682567, 0.03934458792682925, 0.3616186503626245, -0.6868832309478644, -0.6359991688939416, -0.12935854112651893, -0.006314371843147868, 0.009120735532509375, 0.36081132758842394, -1.6425863655610584, -0.13820012091836234, -0.9982246508253226, -0.9148344524022929, -1.4076479738730832, -2.128642960988929, 0.7039120086968134, -0.18232015532565582, 1.8305167344110551, 0.01611024176690443, -1.3699246506214497, -1.3128579943844612, 0.6869066565336122, -1.816093262958786, -1.0261092363760755, -0.19025120282306493, -0.0784017719237806, -0.07779996053200253, -0.0071149609989545155, 0.1024739067356072, -2.301969576051697, -0.8891866555083572, 0.6487225592954212, -0.9607033923125267, -1.180928125271975, -1.5649716754753058, 0.4241687075680058, -0.18491677278771573, 1.0187464577006031, 1.1505689386440974, 0.6554198897985877, 0.508717190111957, 0.1303293539940683, -1.5655711870126194, -0.7199955635523986, -0.08607214200137621, -5.139876388827586E-4, -0.01941239029492209, 7.328465916965955E-4, 0.03747737177932302, -1.7156175454972844, -1.63156018151464, 0.3087433359004876, -1.479714778122349, -3.120217190481339, -1.1501409553647908, 1.1573274806278155, 1.5899568778089093, 0.8314860689480257, -0.892050002247417, -1.6710452753269194, -0.5542018586990344, -1.0553236566742434, -0.9803284211049265, -0.3758900982238916, 0.010143381343948647, 0.0010472776579730676, 0.0025099021581612545, -2.886579092152048E-6, 0.001298239944861145, 0.0023092251510147717, 0.13793847163019762, 0.9893456417714893, -0.22758648341479806, -0.8594612696708258, -0.23942756121569142, -1.2801589702970053, -0.3993930159156481, 1.4499310495449254, 0.05711827540218913, -0.5122081390249165, -0.2795043900169594, -0.259907493304669, -0.06632231787405596, -0.008546156070242495, 0.003120753813975803, 9.280453291885556E-5, -1.2538786363800198E-6, 0.0, -1.7992936989776715E-4, -0.003762197098849049, -0.002160080552661839, 1.072776824131651, 0.6960993711184656, -0.20485054358863883, 0.026879443227273085, -0.03975134610664108, -0.18784036890476594, -0.22960255169239424, -0.2507585320050835, -0.11176994226714203, -0.021891851609824944, -0.033741138030129465, -0.009278055113096723, 0.0014739236858277928, -2.7495283850390863E-4, 1.5428355357544096E-5, 0.0
-2.1047446838464636, 0.0, 0.0, -2.692253037042493E-5, 1.9988613213682785E-4, 6.411654509372467E-4, 0.003997116859019445, 0.03316695765123934, -9.653564849692959E-5, -7.781659279182698E-4, -0.005656935411051824, -0.002199001951264027, 9.644492053217649E-5, 2.842810607422971E-4, -0.004826564824130004, -0.0017596348155435898, 3.329907843656756E-4, 2.7172035414151958E-5, 1.2167314901413059E-6, -3.7675757588467486E-7, 0.0, -5.253970213535353E-8, 1.0063253192109281E-7, 2.819055840390907E-4, -0.001969254075072551, -0.008916790473877707, -0.08102384015388298, 0.08394962295872595, 0.20753680563200202, 0.12894573344992208, 0.07772455791939324, 0.0067918884812308645, -0.0259730830749078, -0.03783683262975429, 0.050175810676325795, 0.033061141110988033, 0.007042285384457793, 0.01210892980510617, 0.007615300096867862, -8.910734319065223E-4, 2.1367058154171664E-4, 4.318627756513981E-7, -6.975613932616371E-6, -1.4497702584188665E-4, 0.0015305419568257977, -0.011280388443836881, 0.2091325737144589, 0.2039470927758419, 1.677789512560506, 2.44051154872427, 1.5777697772641994, 0.751301336081882, 0.7672093564777637, 0.2973320311660887, -0.10750310725516973, -0.19752173085923092, -0.2388731411424256, -0.2049816157215253, -0.15765464646916916, -0.019901411067387468, -0.001911280387158389, 2.1376944960511496E-6, 1.3880368576442032E-5, 0.006518480445891318, -0.049474685980508505, -0.341456120248381, 0.24229006933242667, 0.12724599972050868, 1.2424034197206197, 0.9567773682677458, 0.907569217024588, 0.47045447184382966, 0.7722532522994534, 1.4416523562836145, 0.09094007865632976, -1.00102076670116, -0.7046848698947716, -0.5094824017905876, -0.0948946863288493, 0.26377399390993844, -0.0012318388954110162, 3.353420221123067E-6, 8.682430621850219E-4, 0.026727187035018928, -0.3733154705086525, -0.34030417862709494, 1.3449172085663443, 0.7422387693736887, -0.47424096820125394, -1.3221022351581695, -0.6549686308297372, 0.2725285554941772, 0.3858912269138315, 0.4902503818341474, -1.4479081753315686, -1.8924753369984744, -1.4274387661626309, -0.5431618586669259, 0.5337636261539018, 0.4454615047921906, -0.20297660996191547, -9.252802272156312E-5, 0.0023793578059834184, -0.016715878732443373, -0.3329552414512799, 0.23450955456891542, 0.904782849953974, 0.9080646789645714, 0.3624233822176999, 0.70177280740975, -1.3018159871798212, -0.5592221893965988, -0.1652160435112732, 0.31878857793724436, -2.0761489939157416, -1.678249108044284, -0.7984940386116959, -0.051111540035228435, 1.149802462929489, 0.9324075504019853, -0.12537516896210255, 3.099000700854374E-4, -0.0028586534329299515, -0.06376586629067009, -0.0706805171541604, 0.3372578259197488, -0.39243741806350013, 0.8666831119879616, 0.2533089739753934, 0.22502542872675288, -1.183646557514456, 0.37527187999024125, -0.2362047379505176, -0.15134057826875455, -1.8890881629560348, -0.25098402742217296, 0.9004800809186168, -0.687527300758988, 0.19664721549098663, 0.6755336953144777, -0.13517504783466003, 2.433001090168716E-4, 0.0010604687329399214, -0.14153835674969287, -0.054015158495213336, 0.2877737735280884, -0.09940321131157322, 0.41753839929088554, -0.4634461639402839, -0.6518915814901733, -0.34221472403397, -0.26060833192963456, -1.0468152088484148, -0.7472258894635398, -0.8705759343416019, 0.13358715830685428, -0.38860968755876263, -1.3466102574364274, -0.21867857728665396, 0.7507552342832349, -0.13083473443729982, 0.0018329855236468003, -0.015950102547177405, -0.24734546419805578, -0.3389083899253133, -0.06822795808252043, 0.3676432391597727, 0.791961152562172, 0.5144761179445161, -0.4025397062805136, -1.7235485101416614, -1.069070035450331, -0.9994098555960583, 0.2368183852478351, -0.10599348797780393, 0.23257496360411153, 0.47016589876716747, -0.41991945246716494, 0.5055198547273961, 0.5552452563803005, -0.3232124762620153, 0.004990639136119466, -0.04721622802158232, -0.39042492078225355, -0.6632332478643683, -0.12068837226326458, 0.5025459120593426, -0.31050978378325456, 1.0307720825832847, 0.3980934706744995, -2.3835554156984053, -0.8897254585397487, -0.8996562328380922, -0.20163859379701715, -0.1868162659004599, -0.0423629215159588, 0.5020231275944378, -0.3837267270406304, -0.9662143508096873, -0.031995237878072735, -0.11383022164362419, 1.503576259446391E-4, -0.020218302163435002, -0.48927379500089885, -0.3984536049805485, -0.1289279525074359, -0.5257386491129579, 0.8466447224373449, 0.3137622872851367, 0.45061237652424446, -1.5142852502687911, -0.6144518832456034, -1.0918427537494841, 1.0088822901316927, 0.17938930243416823, -0.7168092101759702, -0.35974631021146086, -0.7772995508078955, 1.3284527214645148, -0.1221627419578526, -0.4103357532400881, -3.7609537850935457E-4, -0.015638385042836583, -0.3270955170804771, -1.519392456235744, 0.34163436627504756, -0.19109294058383347, 0.719613369310929, 1.4568536751504153, 1.534440627881791, 0.24999428008855867, -0.17772554171761332, -0.8437789823489587, 0.3637521496411887, -0.9306892140924543, -0.07502782339338135, -0.39280544313429255, -0.06465327369454782, 0.2289546698417177, -0.3160110675738984, 0.01613237448152307, 0.002588135961124359, -0.017344187666250094, -0.06397265242147254, -2.7914643296881785, -0.1510728813078003, 0.6045326982648096, 0.4527647678330927, 0.5405456951675238, 1.7786179374300861, -0.4846262466911666, -0.02222087581627897, 1.0525363533799328, -0.6526983373026388, -0.06725023787529752, -0.0747306005770515, -0.6192500777004896, -1.2495442218185964, -0.4381402489574206, 0.6485686627530475, 0.31665371071971277, 0.0021070875509045335, -0.012689804181790535, -0.05109455259128633, -2.052866805478892, -1.3295519561125448, 0.10143883243842991, 0.14917945033873445, 0.5664794074557837, 1.5986300372678222, -1.0309404794263934, 0.001701840907571524, 0.9744369565174738, 0.41425337360189846, -0.4205507301447476, -1.072358242066269, -1.2691470299585064, -1.3693703193963707, -0.8489086077907266, 0.6537819838120646, 0.34986567967800025, 6.158498895007195E-4, -2.676727843363342E-4, -0.03136332194440379, -1.1489390032126636, -1.1083008322672991, 0.2989112306384396, 0.13568056156194344, 0.6283114203741113, 0.3551349232831502, -0.15318462546617076, 0.4892198149368319, 1.0201149391543058, -0.14877079943023555, -1.1610884485639899, -0.7793615538768837, -0.7869997863198802, -1.2167189996650691, -1.167703957843947, 0.21850917193981642, 0.2636375394927901, -1.5534399184467343E-6, 0.001508261973141076, 0.009416436839198817, -0.6466158751082189, -0.41056128243168966, 0.2411201158568385, 0.2951526684614534, 0.08604681119976867, 0.18257830131542394, 0.915418464932223, 0.456630028797326, 0.4857123197675111, -1.2844058817889392, -0.8274167768094055, -0.6899911195786119, -0.29842407096955303, -1.0158879811015897, -0.5892343928709087, 0.21010243076556212, 0.7726947903363753, -3.7762368824413864E-6, 0.0011004276778261936, 0.011962382844120318, -0.31714838319866767, -0.37857202787201016, -0.2635074446348825, 0.49041353087567535, 0.8855635913457314, -0.13882093027206688, -0.45924580063097953, -0.45439826692776014, 0.1617201116285261, -1.2358395718371087, -1.2409538280490584, -1.3357985039856277, -1.433353716046635, -1.5327273628636788, -0.8006729251052529, -0.4107324775827453, 0.12256461861933794, 1.670241784599355E-5, 4.195335528319634E-4, 0.0032206908166267623, -0.07036263321727818, -0.4881582872747895, -0.8833900560142983, -0.36054411417521476, 0.08933637846016788, -0.6356979842373397, -1.0590493827435803, -0.3030417069793633, -0.2216854358108327, -0.4217892586592798, 0.4111461382004577, -0.08024517120603156, -0.17518431007400254, -0.13072108144885408, -0.05439020703401693, -0.03694951915182457, -0.03573060465141405, -5.896429756826956E-7, 4.839890627495975E-7, 2.90698970000847E-4, 0.005371860777027044, -0.0959811292317955, -0.4282376819621727, -0.4456908136695718, -0.14989674000885123, -0.029692741782854328, -0.030691027779080376, 0.304138527744294, 0.022337866982812243, -0.071986370617852, -0.0029138404428811766, 0.010390661964011087, 0.012391358274970263, 0.016970726861019043, 0.010243487206077321, 0.006311502137509373, 0.001559061386257317, 0.0, -1.4175404559910661E-6, -6.182979827380541E-7, 0.0013907669519639145, -0.01815837814414207, -0.04312155982766943, -0.06423385739441977, -0.00593112348813154, -0.005960458264702768, -0.002805122023077493, -0.02888457916918613, -0.00845770606381604, -0.004429810149460146, -0.010902448439010809, -0.0018232569198330757, -0.001946676055135913, -0.00230582201765543, -4.971656703146646E-4, 6.116924741335869E-5, 0.0
-7.933941096925159, 0.0, 0.0, -4.286063429514792E-6, 4.1643285810005126E-5, 7.5776824967416E-5, -3.1722760757322746E-4, -0.0061764092997881, -0.005411547638731601, 3.414624637476538E-4, 9.473633357657941E-5, 1.8525934916746186E-5, 4.713217564012517E-5, 1.4859587825965352E-4, 5.960441646302212E-4, 0.0014993240999058063, 0.0011323918842388603, 1.8012051163055813E-4, 8.913493136355761E-6, -2.8076156524489644E-6, 0.0, -8.887145982971897E-8, -4.4810239417868744E-6, 6.161585151360426E-5, 4.124306103424024E-7, 4.1783493433379594E-4, 0.007778721591114062, -0.0021339772695075894, -0.02588906429708566, -0.03184347558977383, -0.018208128575702802, 0.0032100538484123534, 0.0017839056919296194, -0.0011921676852054079, -8.928476392977805E-4, -0.003411281562428504, 0.006873587135270396, 0.013573430631789538, 0.008390891523646258, 5.128607226498914E-4, 3.033949074332863E-4, 6.903246705401311E-7, -7.037217773494752E-5, 2.2812143056448342E-4, 0.005668747110751787, 0.004107392663501423, -0.07350230817823013, -0.18138141305453187, -0.16305161439651927, -0.039111325676635215, 0.018537529135392458, -0.024672875374178435, 0.002386925072301729, -0.05869163050133697, -0.23868384424895922, -0.4459256577884133, -0.3571147237515522, -0.16661023720927237, -0.09912471860008015, 1.1663079701562535E-4, -0.003619639200975292, 3.823072037644834E-6, 0.001104069620654058, -0.001438551996271549, -0.10745383142209172, -0.21684307808303083, -0.659298623077908, -0.714301078658159, 0.2056162752516073, 0.8013619877979253, 0.5094210062349115, -0.4437935559059611, -0.37197871415883765, -0.09523340760095239, -0.08902948921426464, -0.09958623334635852, -0.7137143005546663, -0.743855615116782, -0.498080531156022, -0.051210088541141424, -0.013440421490869492, 1.0616135208619413E-5, 0.0025497453346932856, -0.0024847058567369377, -0.27670130498787626, -0.7911851742766924, -1.044197975621149, -0.1103143527982539, 0.8314958160369548, 0.4622351055900863, 0.013097471849611153, -1.0067780872659737, -0.8097209000308695, -0.26005397571637834, -0.5316755679525096, 0.2687176162728522, 0.4181774881951946, -0.42174533859124386, -0.601387882564865, -0.27308028885462554, -0.004483624034062052, -1.163942384930824E-4, -7.99428666109685E-4, 0.03279242160195089, -0.36423987801230806, -0.9932657798415301, 0.038674608708088386, 0.4398539178350289, 0.7166609967813294, 0.003681812708062581, -0.37957969550870546, -0.3960378228606647, -0.9356739783510373, 0.07102626347373915, -0.4190464178769838, -0.47403359558108815, 0.7789401038482607, -0.4479102544234426, -0.4038098223215321, -0.5102346005410168, -0.03038637930350898, -9.963043063590593E-5, -0.0060100531098695115, 0.03341474645004521, -0.39592896650316667, -0.6274048746517744, 0.07241878396375645, 0.903736976165745, 0.48275647969023056, 0.00963436555069715, -0.042880260880955534, -0.47804926882629534, -1.0229003367738592, 0.7743319424900152, 0.8197967272370337, -0.04994128494495223, -0.0037706823038672716, -0.6721289439327695, 0.024524366946646663, -0.7223916999854408, -0.09718692567946434, 0.0012626950598429547, -0.017294361633885577, -0.011335174679151551, -0.1970464737452748, -0.23934617247831036, -0.28467343570265846, 0.5553928834984923, 1.1453563685095711, 0.15422690515733883, -0.4726400429036215, -0.2539303820164288, -0.05004498257399991, 1.3329568021118992, 0.7406529852062987, 0.12964235237440386, -1.0395567681428766, 0.38572178981988864, -0.1792099969383595, -1.1509911421923567, -0.13900032634424103, 0.0013910024839747753, -0.01237663865009643, -0.10872709372177573, -0.027837048178160916, 0.04874633422206445, -0.5446725019158265, 0.4659059085924562, 0.31496773451612614, 0.5296220748515337, 1.007440072498225, 1.2338928513352643, 0.4636385206737774, 0.22255774564669312, 0.8745337854086724, 0.058976754242880944, -1.0207626926091757, 1.1581601161103565, -0.39898578827626446, -1.1400194258688183, -0.22358068010801702, 0.0031609040419392034, -0.034889134955872494, -0.23924409643822686, -0.22909483052484017, 1.077217846109365, -0.26282842937950784, -0.05957881200084998, 0.8939003294595237, 1.4295000756063798, 0.2749179937656208, 0.30166624635268624, 0.9509284997933914, 0.41549603062452595, 0.00967889178172178, -0.6197263142907945, 0.5938687058451828, 1.2541142652865207, 0.111466755152525, -1.078884188888908, -0.2785126591950426, 0.00795961732678189, -0.0792277227760795, -0.5128886379816938, 0.103956126436867, 0.8905643277668336, -0.5719692522716532, -0.5645892519183033, -1.1912712070118388, 0.09181993150375847, 0.7498929971878834, -0.07617080406300836, 0.35952791553245167, 0.2534743607514126, -1.0718870917071508, -0.8482951178684882, 0.17408991709054716, -0.2908227754171279, 0.7557940538144375, -0.8079229340043188, -0.20332436930305478, 0.009058412347555021, -0.12502020622194815, -0.6556749385319625, 0.007902985860058123, 0.31711917152145397, -0.12588139748542326, -0.17383032900015574, -0.6165502659458137, -0.08370418705807094, 1.6022260809096134, 0.7370376640704355, 0.6144290400081667, 0.253623006553983, 0.23013795197841913, -0.5571534527421517, -0.4672432980449926, -0.22117099090619372, 1.0438699323220098, -0.6429857055605258, -0.09712781694574621, 0.012010127392964753, -0.145308190872223, -0.9639474530556993, 0.1954135167777604, 0.7903222786671978, -0.7804182333296562, 0.2585492002796917, 0.06554370497777001, -0.6540502791020855, -1.031265676777926, 0.30665146043382224, -0.7700634860071908, -0.18617585853272056, -0.6044391167880673, -0.34898972024720415, 0.6034041940774529, 0.0024759081449663434, 0.5341043504255164, -0.4832126609887649, -0.05422268690406148, 0.013524524530338988, -0.15944076592967016, -0.5901145915513212, 0.31470974537859053, -0.3914609464828187, -0.06887845708447028, -0.14089192703652917, 0.12769686410432635, 0.8737953401064761, -0.6741209735101127, -0.733144331945937, -0.5509442703327326, -0.9740733937119714, -0.6115117747698507, 0.154352301015354, 0.12622287279732938, 0.26838438515015384, 0.5493179060960703, -0.132246492370087, -0.02858362833350485, 0.005483171046104411, -0.05712741514422844, -0.5590348732939502, -0.025058015430959486, 0.03695146000080652, -0.17990677837277855, 0.1764707117673838, 0.8617525040317526, 0.9950938151478383, -0.07879405760424939, -1.0834610515060503, 0.4818526754696579, -0.29633045894074944, -0.8028675734748237, -0.22552674350464494, -0.6936602025957613, -0.11069557770060887, 0.37866634822415995, -0.09191293738012557, -0.02772566774261847, -2.5786085928470595E-4, -6.818529967334312E-4, -0.23660937147539152, 0.0724744888718834, 0.26979102541681793, -0.4057612012956004, -0.151982502153049, 0.6728640014704432, 0.22413695910411327, 0.4724027192682343, -0.7915136879553254, -0.5844168851452989, -0.0975067417878382, 0.032605757307733164, 0.48866089563265036, 0.053787457337554405, 0.4471761844633937, 0.09163579840412095, -0.1358785899749496, -0.021774323710657552, 0.003020975982167089, -0.0290811195320325, -0.14136758240199787, -0.3900136699877689, 0.09155823933678586, 0.45933791690019116, 1.2206223248365609, 1.2707573511752295, 0.5738712962680594, 0.2935109983034815, -0.18400200716243933, -0.4450999220392042, -0.4831183019796887, 0.2426154599348496, 0.4164126710301014, 0.25297867615858116, 0.12332336114014841, -0.13557245515889613, -0.07881677830372524, 0.005370375077048903, 0.0028052880688996785, -0.031133404897843886, -0.029744840251722623, -0.09872330188871678, -0.32374063990809654, -0.36582269406287216, 0.11153594763067318, 0.07682150285825716, 0.4664464819957702, -0.23797788534587036, -0.06576971896732467, 0.18808584249044505, -0.041184437038291166, -0.15606954150602118, -0.05673036160866566, -0.12775584375750174, -0.07088254316219357, -0.014217221786276485, -0.027602073584095013, 0.0053144758717914, -1.1279120643889363E-4, 0.0013740416326735374, -8.25861126354099E-4, 0.038119858350338695, -0.2636382019684638, -0.6622805257851954, -0.6835694586482833, -0.3660536484431494, -0.093707444524862, 0.020341416948593625, -0.08189848507625182, -0.21311741870387807, -0.2155901262971906, -0.1591468424373827, -0.1992340455306632, -0.05491647667203763, 0.0018578474745938917, 0.0016930040551840313, 0.0017251025982560318, -3.5513407560098587E-4, 0.0, -1.782478766534969E-5, -0.0010080472180664733, 0.012435829564343857, -0.01193391240023171, 0.0326370845677121, 0.05707330339179777, 0.001241377443130072, 0.019752819788559195, 0.007705723189424484, -0.017899239414255454, -0.04582965643531681, -0.04501431533708271, -0.02531682847648125, -0.021879078812736763, -0.009111356891648048, 4.472004096595725E-4, -1.1047473826452337E-4, 1.0154661648800452E-5, 0.0
-4.530243958367116, 0.0, 0.0, -1.622351106589109E-6, 1.7951192203474546E-5, 2.736765500930452E-4, -0.004185903179936769, -0.002962598696415668, -7.047408948936635E-4, -0.013274715679828823, -0.007304706094451282, -2.2330379763576955E-4, 7.752000275024804E-4, 0.0011313139270059643, 0.0022010235046922796, 0.0023912487722830065, 8.395157510302782E-4, 8.641093699314483E-4, 1.1819838810129269E-4, -1.742751295884989E-5, 0.0, -8.085438429341769E-8, -5.5888791856024405E-6, -5.3346982492169605E-6, 9.80408717193486E-4, -0.0025535486225806204, -7.169376154228873E-4, -0.008825750654497429, -0.06990164012799274, -0.13784366063782494, -0.055233945046741624, -0.004015678642357343, -0.011558599456936, -0.012701868730227373, -0.013526497166204243, -0.01729513515760549, -0.005862982806789038, -0.007019556906438534, 0.0016264440835149006, -7.93915160481484E-4, -0.001227282131633154, 6.764643170331801E-7, 2.1507819338269058E-5, 2.3992414148243677E-4, -0.0028232143296118123, -0.043385136951674556, -0.1137809711960034, -0.16278197209533157, -0.6883088737062858, -1.0385296711988365, -0.3843341496895638, -0.12242312247927688, -0.14134490180218862, -0.06440423853065785, -0.057476552685608244, -0.0369119735148948, -0.06889767562561298, -0.04920487603371348, -0.0747254210683414, 0.015034408273595574, 0.022200046164940535, 3.063263637502466E-6, 4.290099905471925E-4, 0.00142544889710169, -0.0554071602526198, -0.21713446369958778, -0.49122918200911825, -0.6356505666461709, -0.7906503739967266, -0.4350578437537611, -0.1304336168792728, -0.05053887461481244, 0.3281857997536346, -0.028284971941675344, -0.7786349677339941, -0.7557904791436472, -0.41373949871220533, -0.18715000372084142, -0.055178985214379604, 0.004634662830392281, -0.004101098259926213, 5.8579162847069325E-6, 5.320279407138045E-4, 0.004025187904696538, -0.08271044626778393, -0.557210966771956, -0.8859142823353756, -0.5857033224052981, 0.474086569803264, 1.689926661328204, 0.7484224893585996, -0.301454299816265, 0.049881599507051656, 0.0778110193603851, -0.7155538812928393, -0.6518148755500591, -0.7015049186455632, -0.719568175114455, -0.09088183581938922, 0.021538518074175173, -0.13099623599912924, -6.268931465272045E-5, 9.159687981331586E-4, 0.009711902322638034, -0.24390195338881113, -1.0044573550359492, -0.609951980807025, -0.2245058604295022, 0.02591956343903624, 0.652711876227641, 0.8690301354084164, 0.12359427227556699, -0.6078020683514538, -0.1844387829891007, -0.04352388437462907, -0.14950590829954785, -0.24532479560363638, -0.3577247928017733, -0.11946279165497237, -0.03922687780521945, -0.08559744722198892, -1.0015696590569777E-4, 9.375695883308662E-4, 0.007553386436185914, -0.3790595219405955, -1.1110712022419076, -0.4817325521923129, -0.21919873144410285, -0.3602790986763726, 0.43940775029248386, 0.751293745071592, -0.05775393422749009, -0.15019254633082318, 0.3945692729260328, 0.039626080171919, -1.0286468144488057, -0.33689496788098877, -0.1689387581126267, -0.4348374463481973, 0.434679414600602, 0.05374452905864023, -0.0010824139449297047, -0.009848995746445866, -0.0035063611498371526, -0.4552459796346342, -0.10607768194389258, 0.38469322756783864, -0.414917222709125, 0.5991287194115426, 1.2119406330447842, 0.3709253494204346, -0.1013879831193576, 0.4964139732209155, 0.23186211981359275, -0.1382497217390995, -1.1338312854126884, -0.34603890053467445, -0.99575461751738, -0.5240109780282753, 0.11217380624124217, -0.35779537723911864, -0.0031221207266060387, -0.040803168485930436, -0.08862022854831741, 0.19130186130054563, 0.7541354691244315, -0.030607308897965195, -0.26896038350230167, 0.10144200897605399, 0.3187903951740055, 0.13734084949633374, -0.3194996707554475, 0.11934521526727973, -0.07180964157931105, -0.09837711210700047, -1.0687256868250532, -0.5286680448771478, -0.7263695868028017, -0.5369283800474787, 0.2078903569482888, -0.5558064512423571, -6.257622255193758E-4, -0.06778161146192227, -0.25744409775615745, -0.33607951060755337, 0.6629468712881403, 0.6439314936796317, 0.36712781175855314, -0.509617285342597, -0.3990611166772211, 0.35565563442757553, 0.5072369175427429, -0.13299561993740558, 7.835601575787443E-4, -0.3130159918729557, -0.8349536333203518, -0.1765749674295644, -0.5478151073560462, -0.781184184343778, 0.40912959480507954, -0.5264737872485108, 0.002412904038040737, -0.09671222948808415, -0.2993146059637578, -1.0386877859014292, 0.653535139520906, 1.9909453071446865, 0.9139767006188217, 0.4635270747929885, -0.10411948962279921, 0.48273172127435005, 0.24856347676064178, -1.0505864970141696, 0.15251461652610912, -0.24265009008320712, -0.9870262303072828, -0.2248357683950063, -0.6777383553851929, -1.114581778210119, 0.8481105151915906, 0.042716089484100175, 0.0055645908084589555, -0.11686548798318595, -0.4596758006198138, -1.491465908612635, 0.5828913551591461, 1.8842475650357606, -0.28058307629405893, -0.5199159879560198, 0.25669614893458215, 0.30916518946882543, 0.9982935835753094, 0.9175446016539853, -0.20491673009649342, -0.19670318251068708, -0.6636677603863318, -0.5009081374554587, -0.9483247581235572, -0.1636994652809457, 0.12080922002609613, -0.17571065363207852, 0.014321854457699889, -0.14396443247678153, -0.6801867559609941, -1.8934109978007738, 0.8034043521472172, 0.8501241847102188, -0.2899487722772172, -0.15279662843993558, 0.8991963881236827, 0.03221525018858306, 0.7182520473876202, -0.006810748178987313, -0.04656455939915644, 0.38248099991261786, -0.9084233227026587, -0.7228452008483335, -0.7387466072406087, 0.14039168918294212, 1.1693229720147693, -0.10741334198939724, 0.011179665675205185, -0.11619454100527188, -0.5162735291271482, -1.555818804495765, 0.34474430235481557, -0.2763712502151932, -0.5972110611157003, 0.5653832488810806, 0.24723380640223985, 0.5978283335994696, -0.3519897601821932, -0.8073578660366997, 0.21499594812990624, -0.3396160016700174, -0.14194957473736888, -0.3535288280095214, -1.1130041277544005, -0.1330226959270981, 1.1712831765816667, 0.23938690731987644, 0.0010830505435119675, -0.042856731869273405, -0.27219919432580375, -1.1592207607451115, -0.2713266754063833, 0.6406363763991192, -0.462368037901418, -0.24077295362702186, 1.2457531698767628, 0.7155951697352434, 0.23810004379509195, -0.7284912213315654, -0.2303575722703808, 0.4529033493009221, 0.18080514005459442, -0.4599120950392306, -0.46942853870828477, 0.4632707188835266, 0.9929286361878787, 0.16791211688050803, -0.001769793756213508, -0.0042913885149443035, -0.0422334129220858, -0.8306070673942499, -1.3907452374311549, 0.26078389076444203, -0.44379534494488343, 0.047808385324746745, 0.7954941115231434, 0.5215285297296081, 0.34433787185844567, -0.6574886262368799, -1.038751182867879, -0.4853893734607539, -0.39928947154326505, -0.5222007840988883, -0.08658453789354267, 0.9549839035752175, 1.0046843643051222, 0.05429857270074341, -3.159157235318704E-4, 0.001673381343873339, 0.002836365722780799, -0.4080937925068306, -1.2795608341039213, -1.1489381033032933, -1.3464424726759001, -0.5144541799835388, 0.08613294376014939, -0.41804782845290006, -0.5925489446405608, -0.880705367622073, -0.9784803102987275, -0.4172865656768647, 0.061527538087316036, 0.21047037270030888, 0.23038865334651482, 0.7540312180169191, 0.4768171476943803, 0.05445641632889415, 5.563510860188556E-5, 0.0012441232045641549, 0.003194327956830996, -0.1436135072226187, -0.5454523322783872, -1.1101749935413587, -1.1437558699268615, -0.5557017812470244, -0.08976842515051735, -0.5051118760591692, -0.719649237820898, -0.817715300201362, -0.6936892404708893, -0.16969870748920154, 0.35124126051233745, 0.27755898609366186, 0.04248387602672905, 0.05974426255359556, 0.0678316263992714, -0.0010334210759891506, -5.322277021810065E-7, -1.7519764035704644E-5, 7.263408031499285E-4, 0.006277053217746407, -0.13270821081595718, -0.6164253169385455, -0.49283828802037466, -0.16008470275767886, -0.13297964913789312, -0.06149190243356132, 0.030098532553003165, -0.0977930090121786, -0.1400237725767125, -0.029699146136579428, -0.0032030732222933485, -0.03522915224128598, -0.024657463438945832, -0.007657048588007717, -0.005785099937390793, -7.7428464046458E-4, 0.0, -1.93887302641093E-6, 1.9999602534548686E-5, 0.0021231406494878697, -0.03226268261902626, -0.08850477703556328, -0.028563643960122464, 0.010792825322298076, 0.0019481888520860983, 0.00218513746874918, 0.005332714923326188, -0.030242035573438058, -0.060014392362371244, -0.015086818404536285, 7.445881642418753E-4, 0.0018457483041994787, 7.561645435038331E-4, -3.951962278478394E-4, 2.530140327884915E-5, 0.0
